digraph Tree {
node [shape=box, style="rounded", color="black", fontname=helvetica] ;
edge [fontname=helvetica] ;
0 [label="temp_1 <= 59.5\nmse = 143.7\nsamples = 165\nvalue = 63.0"] ;
1 [label="average <= 46.8\nmse = 36.4\nsamples = 61\nvalue = 50.4"] ;
0 -> 1 [labeldistance=2.5, labelangle=45, headlabel="True"] ;
2 [label="day <= 29.0\nmse = 22.0\nsamples = 15\nvalue = 43.8"] ;
1 -> 2 ;
3 [label="mse = 9.8\nsamples = 14\nvalue = 42.9"] ;
2 -> 3 ;
4 [label="mse = 0.0\nsamples = 1\nvalue = 57.0"] ;
2 -> 4 ;
5 [label="temp_1 <= 55.5\nmse = 14.8\nsamples = 46\nvalue = 53.3"] ;
1 -> 5 ;
6 [label="mse = 8.1\nsamples = 33\nvalue = 51.9"] ;
5 -> 6 ;
7 [label="mse = 6.4\nsamples = 13\nvalue = 58.4"] ;
5 -> 7 ;
8 [label="temp_1 <= 67.5\nmse = 65.4\nsamples = 104\nvalue = 70.0"] ;
0 -> 8 [labeldistance=2.5, labelangle=-45, headlabel="False"] ;
9 [label="average <= 64.8\nmse = 20.2\nsamples = 40\nvalue = 63.5"] ;
8 -> 9 ;
10 [label="mse = 11.0\nsamples = 26\nvalue = 61.3"] ;
9 -> 10 ;
11 [label="mse = 16.5\nsamples = 14\nvalue = 66.7"] ;
9 -> 11 ;
12 [label="month <= 8.5\nmse = 51.0\nsamples = 64\nvalue = 74.0"] ;
8 -> 12 ;
13 [label="mse = 46.6\nsamples = 53\nvalue = 75.6"] ;
12 -> 13 ;
14 [label="mse = 21.4\nsamples = 11\nvalue = 67.9"] ;
12 -> 14 ;
}